digraph Tree {
node [shape=box, style="filled, rounded", color="black", fontname=helvetica] ;
edge [fontname=helvetica] ;
0 [label="PetalLengthCm <= 2.45\ngini = 0.667\nsamples = 135\nvalue = [46, 45, 44]\nclass = Iris-setosa", fillcolor="#fffefd"] ;
1 [label="gini = 0.0\nsamples = 46\nvalue = [46, 0, 0]\nclass = Iris-setosa", fillcolor="#e58139"] ;
0 -> 1 [labeldistance=2.5, labelangle=45, headlabel="True"] ;
2 [label="PetalLengthCm <= 4.85\ngini = 0.5\nsamples = 89\nvalue = [0, 45, 44]\nclass = Iris-versicolor", fillcolor="#fbfefc"] ;
0 -> 2 [labeldistance=2.5, labelangle=-45, headlabel="False"] ;
3 [label="PetalWidthCm <= 1.65\ngini = 0.087\nsamples = 44\nvalue = [0, 42, 2]\nclass = Iris-versicolor", fillcolor="#42e687"] ;
2 -> 3 ;
4 [label="gini = 0.0\nsamples = 41\nvalue = [0, 41, 0]\nclass = Iris-versicolor", fillcolor="#39e581"] ;
3 -> 4 ;
5 [label="SepalWidthCm <= 3.0\ngini = 0.444\nsamples = 3\nvalue = [0, 1, 2]\nclass = Iris-virginica", fillcolor="#c09cf2"] ;
3 -> 5 ;
6 [label="gini = 0.0\nsamples = 2\nvalue = [0, 0, 2]\nclass = Iris-virginica", fillcolor="#8139e5"] ;
5 -> 6 ;
7 [label="gini = 0.0\nsamples = 1\nvalue = [0, 1, 0]\nclass = Iris-versicolor", fillcolor="#39e581"] ;
5 -> 7 ;
8 [label="PetalWidthCm <= 1.75\ngini = 0.124\nsamples = 45\nvalue = [0, 3, 42]\nclass = Iris-virginica", fillcolor="#8a47e7"] ;
2 -> 8 ;
9 [label="SepalWidthCm <= 2.65\ngini = 0.49\nsamples = 7\nvalue = [0, 3, 4]\nclass = Iris-virginica", fillcolor="#e0cef8"] ;
8 -> 9 ;
10 [label="gini = 0.0\nsamples = 2\nvalue = [0, 0, 2]\nclass = Iris-virginica", fillcolor="#8139e5"] ;
9 -> 10 ;
11 [label="PetalLengthCm <= 5.05\ngini = 0.48\nsamples = 5\nvalue = [0, 3, 2]\nclass = Iris-versicolor", fillcolor="#bdf6d5"] ;
9 -> 11 ;
12 [label="gini = 0.0\nsamples = 2\nvalue = [0, 2, 0]\nclass = Iris-versicolor", fillcolor="#39e581"] ;
11 -> 12 ;
13 [label="SepalLengthCm <= 6.15\ngini = 0.444\nsamples = 3\nvalue = [0, 1, 2]\nclass = Iris-virginica", fillcolor="#c09cf2"] ;
11 -> 13 ;
14 [label="gini = 0.0\nsamples = 1\nvalue = [0, 1, 0]\nclass = Iris-versicolor", fillcolor="#39e581"] ;
13 -> 14 ;
15 [label="gini = 0.0\nsamples = 2\nvalue = [0, 0, 2]\nclass = Iris-virginica", fillcolor="#8139e5"] ;
13 -> 15 ;
16 [label="gini = 0.0\nsamples = 38\nvalue = [0, 0, 38]\nclass = Iris-virginica", fillcolor="#8139e5"] ;
8 -> 16 ;
}